~o
<STREAMINFO> 1 39
<VECSIZE> 39
<NULLD>
<MFCC_E_D_A>
<DIAGC>
~h "a"
<BEGINHMM>
<NUMSTATES> 5
<STATE> 2
<MEAN> 39
 -3.476976e+00 -7.630199e+00 -4.309104e+00 3.402616e-01 -5.818130e-01 -1.481192e-01 1.407574e+00 -1.920266e-02 -1.947734e+00 2.000816e-02 -4.996964e-01 3.713515e-02 2.232058e+01 9.338687e+00 -1.183397e+01 -5.306859e+00 2.489652e+00 3.656466e+00 -1.144049e+00 1.535316e+00 3.609283e-02 -2.611163e+00 -7.098327e-01 -1.404070e-01 1.679133e-01 8.440966e+00 -3.926016e+00 6.782426e+00 3.312966e+00 1.474188e-01 -8.270305e-02 1.631249e-02 -1.588314e+00 1.482677e-01 1.475064e+00 2.528093e-01 2.642911e-01 2.554539e-02 -3.941458e+00
<VARIANCE> 39
 4.416244e+01 2.118891e+01 1.217614e+01 1.206431e+01 8.501367e+00 5.581361e+00 4.476580e+00 5.797999e+00 3.519942e+00 3.222706e+00 2.398138e+00 1.953915e+00 5.194571e+00 3.960875e+02 2.001496e+02 8.187833e+01 7.083892e+01 4.652213e+01 3.245992e+01 2.621370e+01 2.522495e+01 2.137503e+01 1.911610e+01 1.383696e+01 1.170283e+01 8.150850e+01 1.893739e+02 6.438801e+01 3.121376e+01 2.777905e+01 2.131667e+01 1.579094e+01 1.265149e+01 1.162153e+01 8.782287e+00 8.268520e+00 6.505712e+00 5.506335e+00 1.815870e+01
<GCONST> 1.832524e+02
<STATE> 3
<MEAN> 39
 -2.830052e+00 -8.246104e+00 -4.696481e+00 1.327787e+00 4.543928e-01 -4.802886e-01 1.075724e+00 7.804956e-02 -1.851384e+00 -6.752003e-02 -3.974086e-01 1.225129e-01 2.304148e+01 2.425813e+00 4.339422e+00 2.292062e+00 1.166523e+00 1.635516e-01 -1.198610e-01 -7.386276e-01 1.567462e-01 6.622496e-01 1.161510e-01 -2.370944e-01 -3.787090e-01 -1.554204e+00 -6.489854e-01 3.819453e+00 1.889750e+00 -5.194197e-02 -9.949168e-01 3.431486e-01 -3.680925e-01 -8.152730e-02 5.342666e-01 1.985090e-01 -5.369672e-02 -2.434224e-01 -2.181574e+00
<VARIANCE> 39
 3.076777e+01 1.767693e+01 1.308280e+01 9.761314e+00 6.264485e+00 4.182829e+00 3.466812e+00 4.829014e+00 3.273637e+00 3.175990e+00 2.228149e+00 1.823195e+00 3.805780e+00 1.767448e+02 8.681525e+01 4.706719e+01 4.814582e+01 3.184741e+01 1.983554e+01 1.688659e+01 1.455039e+01 1.376291e+01 1.329890e+01 1.006057e+01 8.711508e+00 2.071303e+01 7.613764e+01 2.774892e+01 1.536246e+01 1.388383e+01 8.879468e+00 7.277812e+00 6.110587e+00 5.331593e+00 4.961879e+00 4.884994e+00 3.734076e+00 3.312457e+00 5.082191e+00
<GCONST> 1.640193e+02
<STATE> 4
<MEAN> 39
 -8.940982e-01 -4.351302e+00 -2.506921e+00 6.672063e-01 -7.526073e-01 -1.699109e-02 7.764432e-01 -5.409265e-03 -1.407230e+00 9.005661e-02 -5.567830e-01 -1.449531e-01 2.109015e+01 -1.340566e+01 1.399645e+01 6.182533e+00 2.680425e+00 -9.318480e-01 1.287361e+00 -2.498598e+00 -1.513173e-02 2.417734e+00 5.619019e-01 7.176192e-01 9.764860e-02 -8.073967e+00 -1.044287e+01 4.361494e-01 -3.527840e-01 6.519982e-01 1.701353e-01 7.697905e-02 -2.785485e-01 1.066966e-01 3.472646e-01 -4.342388e-02 3.228519e-01 2.794137e-01 -8.022487e-01
<VARIANCE> 39
 4.300437e+01 2.715642e+01 1.320492e+01 1.146745e+01 8.042256e+00 5.719355e+00 4.782512e+00 5.382040e+00 3.588706e+00 3.097422e+00 2.604831e+00 2.046763e+00 5.653264e+00 6.600914e+02 1.479207e+02 8.197710e+01 8.254639e+01 4.869656e+01 4.077484e+01 2.795386e+01 2.841161e+01 2.049910e+01 2.012358e+01 1.458374e+01 1.246975e+01 3.359082e+01 1.662143e+02 5.962321e+01 2.992284e+01 2.517640e+01 1.824190e+01 1.463842e+01 1.138515e+01 9.887016e+00 8.155240e+00 7.407375e+00 6.181435e+00 5.237582e+00 1.088700e+01
<GCONST> 1.820735e+02
<TRANSP> 5
 0.000000e+00 1.000000e+00 0.000000e+00 0.000000e+00 0.000000e+00
 0.000000e+00 6.156766e-01 3.843233e-01 0.000000e+00 0.000000e+00
 0.000000e+00 0.000000e+00 7.284090e-01 2.715910e-01 0.000000e+00
 0.000000e+00 0.000000e+00 0.000000e+00 5.760096e-01 4.239904e-01
 0.000000e+00 0.000000e+00 0.000000e+00 0.000000e+00 0.000000e+00
<ENDHMM>
